digraph Tree {
node [shape=box, style="filled, rounded", color="black", fontname=helvetica] ;
edge [fontname=helvetica] ;
0 [label="nr.employed <= -1.095\ngini = 0.199\nsamples = 28831\nvalue = [25604, 3227]\nclass = y", fillcolor="#e89152"] ;
1 [label="duration <= 0.305\ngini = 0.493\nsamples = 3491\nvalue = [1951, 1540]\nclass = y", fillcolor="#fae4d5"] ;
0 -> 1 [labeldistance=2.5, labelangle=45, headlabel="True"] ;
2 [label="pdays <= -5.107\ngini = 0.316\nsamples = 1446\nvalue = [1161, 285]\nclass = y", fillcolor="#eba06a"] ;
1 -> 2 ;
3 [label="day_of_week <= -0.356\ngini = 0.498\nsamples = 235\nvalue = [125, 110]\nclass = y", fillcolor="#fcf0e7"] ;
2 -> 3 ;
4 [label="campaign <= -0.023\ngini = 0.42\nsamples = 100\nvalue = [70, 30]\nclass = y", fillcolor="#f0b78e"] ;
3 -> 4 ;
5 [label="cons.price.idx <= 0.807\ngini = 0.47\nsamples = 74\nvalue = [46, 28]\nclass = y", fillcolor="#f5ceb2"] ;
4 -> 5 ;
6 [label="pdays <= -5.155\ngini = 0.495\nsamples = 62\nvalue = [34, 28]\nclass = y", fillcolor="#fae9dc"] ;
5 -> 6 ;
7 [label="housing <= -0.584\ngini = 0.485\nsamples = 29\nvalue = [12, 17]\nclass = n", fillcolor="#c5e2f7"] ;
6 -> 7 ;
8 [label="gini = 0.337\nsamples = 14\nvalue = [3, 11]\nclass = n", fillcolor="#6fb8ec"] ;
7 -> 8 ;
9 [label="gini = 0.48\nsamples = 15\nvalue = [9, 6]\nclass = y", fillcolor="#f6d5bd"] ;
7 -> 9 ;
10 [label="euribor3m <= -1.568\ngini = 0.444\nsamples = 33\nvalue = [22, 11]\nclass = y", fillcolor="#f2c09c"] ;
6 -> 10 ;
11 [label="gini = 0.412\nsamples = 31\nvalue = [22, 9]\nclass = y", fillcolor="#f0b58a"] ;
10 -> 11 ;
12 [label="gini = 0.0\nsamples = 2\nvalue = [0, 2]\nclass = n", fillcolor="#399de5"] ;
10 -> 12 ;
13 [label="gini = 0.0\nsamples = 12\nvalue = [12, 0]\nclass = y", fillcolor="#e58139"] ;
5 -> 13 ;
14 [label="previous <= 4.716\ngini = 0.142\nsamples = 26\nvalue = [24, 2]\nclass = y", fillcolor="#e78c49"] ;
4 -> 14 ;
15 [label="gini = 0.0\nsamples = 19\nvalue = [19, 0]\nclass = y", fillcolor="#e58139"] ;
14 -> 15 ;
16 [label="day_of_week <= -1.071\ngini = 0.408\nsamples = 7\nvalue = [5, 2]\nclass = y", fillcolor="#efb388"] ;
14 -> 16 ;
17 [label="gini = 0.0\nsamples = 2\nvalue = [0, 2]\nclass = n", fillcolor="#399de5"] ;
16 -> 17 ;
18 [label="gini = 0.0\nsamples = 5\nvalue = [5, 0]\nclass = y", fillcolor="#e58139"] ;
16 -> 18 ;
19 [label="duration <= -0.903\ngini = 0.483\nsamples = 135\nvalue = [55, 80]\nclass = n", fillcolor="#c1e0f7"] ;
3 -> 19 ;
20 [label="euribor3m <= -1.605\ngini = 0.45\nsamples = 38\nvalue = [25, 13]\nclass = y", fillcolor="#f3c3a0"] ;
19 -> 20 ;
21 [label="day_of_week <= 1.075\ngini = 0.499\nsamples = 19\nvalue = [9, 10]\nclass = n", fillcolor="#ebf5fc"] ;
20 -> 21 ;
22 [label="campaign <= 0.334\ngini = 0.408\nsamples = 14\nvalue = [4, 10]\nclass = n", fillcolor="#88c4ef"] ;
21 -> 22 ;
23 [label="gini = 0.278\nsamples = 12\nvalue = [2, 10]\nclass = n", fillcolor="#61b1ea"] ;
22 -> 23 ;
24 [label="gini = 0.0\nsamples = 2\nvalue = [2, 0]\nclass = y", fillcolor="#e58139"] ;
22 -> 24 ;
25 [label="gini = 0.0\nsamples = 5\nvalue = [5, 0]\nclass = y", fillcolor="#e58139"] ;
21 -> 25 ;
26 [label="cons.conf.idx <= 0.292\ngini = 0.266\nsamples = 19\nvalue = [16, 3]\nclass = y", fillcolor="#ea995e"] ;
20 -> 26 ;
27 [label="marital <= -1.098\ngini = 0.444\nsamples = 3\nvalue = [1, 2]\nclass = n", fillcolor="#9ccef2"] ;
26 -> 27 ;
28 [label="gini = 0.0\nsamples = 1\nvalue = [1, 0]\nclass = y", fillcolor="#e58139"] ;
27 -> 28 ;
29 [label="gini = 0.0\nsamples = 2\nvalue = [0, 2]\nclass = n", fillcolor="#399de5"] ;
27 -> 29 ;
30 [label="education <= -0.584\ngini = 0.117\nsamples = 16\nvalue = [15, 1]\nclass = y", fillcolor="#e78946"] ;
26 -> 30 ;
31 [label="gini = 0.5\nsamples = 2\nvalue = [1, 1]\nclass = y", fillcolor="#ffffff"] ;
30 -> 31 ;
32 [label="gini = 0.0\nsamples = 14\nvalue = [14, 0]\nclass = y", fillcolor="#e58139"] ;
30 -> 32 ;
33 [label="campaign <= -0.38\ngini = 0.427\nsamples = 97\nvalue = [30, 67]\nclass = n", fillcolor="#92c9f1"] ;
19 -> 33 ;
34 [label="pdays <= -5.16\ngini = 0.483\nsamples = 54\nvalue = [22, 32]\nclass = n", fillcolor="#c1e0f7"] ;
33 -> 34 ;
35 [label="pdays <= -5.171\ngini = 0.278\nsamples = 6\nvalue = [5, 1]\nclass = y", fillcolor="#ea9a61"] ;
34 -> 35 ;
36 [label="gini = 0.5\nsamples = 2\nvalue = [1, 1]\nclass = y", fillcolor="#ffffff"] ;
35 -> 36 ;
37 [label="gini = 0.0\nsamples = 4\nvalue = [4, 0]\nclass = y", fillcolor="#e58139"] ;
35 -> 37 ;
38 [label="nr.employed <= -2.023\ngini = 0.457\nsamples = 48\nvalue = [17, 31]\nclass = n", fillcolor="#a6d3f3"] ;
34 -> 38 ;
39 [label="gini = 0.375\nsamples = 32\nvalue = [8, 24]\nclass = n", fillcolor="#7bbeee"] ;
38 -> 39 ;
40 [label="gini = 0.492\nsamples = 16\nvalue = [9, 7]\nclass = y", fillcolor="#f9e3d3"] ;
38 -> 40 ;
41 [label="housing <= -0.076\ngini = 0.303\nsamples = 43\nvalue = [8, 35]\nclass = n", fillcolor="#66b3eb"] ;
33 -> 41 ;
42 [label="gini = 0.0\nsamples = 17\nvalue = [0, 17]\nclass = n", fillcolor="#399de5"] ;
41 -> 42 ;
43 [label="pdays <= -5.136\ngini = 0.426\nsamples = 26\nvalue = [8, 18]\nclass = n", fillcolor="#91c9f1"] ;
41 -> 43 ;
44 [label="gini = 0.375\nsamples = 24\nvalue = [6, 18]\nclass = n", fillcolor="#7bbeee"] ;
43 -> 44 ;
45 [label="gini = 0.0\nsamples = 2\nvalue = [2, 0]\nclass = y", fillcolor="#e58139"] ;
43 -> 45 ;
46 [label="duration <= -0.903\ngini = 0.247\nsamples = 1211\nvalue = [1036, 175]\nclass = y", fillcolor="#e9965a"] ;
2 -> 46 ;
47 [label="campaign <= 1.405\ngini = 0.104\nsamples = 510\nvalue = [482, 28]\nclass = y", fillcolor="#e78845"] ;
46 -> 47 ;
48 [label="emp.var.rate <= -2.082\ngini = 0.101\nsamples = 508\nvalue = [481, 27]\nclass = y", fillcolor="#e68844"] ;
47 -> 48 ;
49 [label="loan <= 1.607\ngini = 0.171\nsamples = 127\nvalue = [115, 12]\nclass = y", fillcolor="#e88e4e"] ;
48 -> 49 ;
50 [label="job <= -0.061\ngini = 0.14\nsamples = 106\nvalue = [98, 8]\nclass = y", fillcolor="#e78b49"] ;
49 -> 50 ;
51 [label="gini = 0.042\nsamples = 47\nvalue = [46, 1]\nclass = y", fillcolor="#e6843d"] ;
50 -> 51 ;
52 [label="gini = 0.209\nsamples = 59\nvalue = [52, 7]\nclass = y", fillcolor="#e89254"] ;
50 -> 52 ;
53 [label="contact <= 0.284\ngini = 0.308\nsamples = 21\nvalue = [17, 4]\nclass = y", fillcolor="#eb9f68"] ;
49 -> 53 ;
54 [label="gini = 0.117\nsamples = 16\nvalue = [15, 1]\nclass = y", fillcolor="#e78946"] ;
53 -> 54 ;
55 [label="gini = 0.48\nsamples = 5\nvalue = [2, 3]\nclass = n", fillcolor="#bddef6"] ;
53 -> 55 ;
56 [label="campaign <= 1.048\ngini = 0.076\nsamples = 381\nvalue = [366, 15]\nclass = y", fillcolor="#e68641"] ;
48 -> 56 ;
57 [label="euribor3m <= -1.36\ngini = 0.072\nsamples = 377\nvalue = [363, 14]\nclass = y", fillcolor="#e68641"] ;
56 -> 57 ;
58 [label="gini = 0.053\nsamples = 294\nvalue = [286, 8]\nclass = y", fillcolor="#e6853f"] ;
57 -> 58 ;
59 [label="gini = 0.134\nsamples = 83\nvalue = [77, 6]\nclass = y", fillcolor="#e78b48"] ;
57 -> 59 ;
60 [label="poutcome <= -1.177\ngini = 0.375\nsamples = 4\nvalue = [3, 1]\nclass = y", fillcolor="#eeab7b"] ;
56 -> 60 ;
61 [label="gini = 0.0\nsamples = 1\nvalue = [0, 1]\nclass = n", fillcolor="#399de5"] ;
60 -> 61 ;
62 [label="gini = 0.0\nsamples = 3\nvalue = [3, 0]\nclass = y", fillcolor="#e58139"] ;
60 -> 62 ;
63 [label="cons.price.idx <= -0.376\ngini = 0.5\nsamples = 2\nvalue = [1, 1]\nclass = y", fillcolor="#ffffff"] ;
47 -> 63 ;
64 [label="gini = 0.0\nsamples = 1\nvalue = [0, 1]\nclass = n", fillcolor="#399de5"] ;
63 -> 64 ;
65 [label="gini = 0.0\nsamples = 1\nvalue = [1, 0]\nclass = y", fillcolor="#e58139"] ;
63 -> 65 ;
66 [label="cons.price.idx <= 0.412\ngini = 0.331\nsamples = 701\nvalue = [554, 147]\nclass = y", fillcolor="#eca26e"] ;
46 -> 66 ;
67 [label="euribor3m <= -1.663\ngini = 0.367\nsamples = 540\nvalue = [409, 131]\nclass = y", fillcolor="#eda978"] ;
66 -> 67 ;
68 [label="day_of_week <= -0.356\ngini = 0.437\nsamples = 164\nvalue = [111, 53]\nclass = y", fillcolor="#f1bd98"] ;
67 -> 68 ;
69 [label="default <= 0.72\ngini = 0.354\nsamples = 74\nvalue = [57, 17]\nclass = y", fillcolor="#eda774"] ;
68 -> 69 ;
70 [label="gini = 0.33\nsamples = 72\nvalue = [57, 15]\nclass = y", fillcolor="#eca26d"] ;
69 -> 70 ;
71 [label="gini = 0.0\nsamples = 2\nvalue = [0, 2]\nclass = n", fillcolor="#399de5"] ;
69 -> 71 ;
72 [label="euribor3m <= -1.705\ngini = 0.48\nsamples = 90\nvalue = [54, 36]\nclass = y", fillcolor="#f6d5bd"] ;
68 -> 72 ;
73 [label="gini = 0.493\nsamples = 34\nvalue = [15, 19]\nclass = n", fillcolor="#d5eafa"] ;
72 -> 73 ;
74 [label="gini = 0.423\nsamples = 56\nvalue = [39, 17]\nclass = y", fillcolor="#f0b88f"] ;
72 -> 74 ;
75 [label="euribor3m <= -1.365\ngini = 0.329\nsamples = 376\nvalue = [298, 78]\nclass = y", fillcolor="#eca26d"] ;
67 -> 75 ;
76 [label="marital <= 0.543\ngini = 0.282\nsamples = 253\nvalue = [210, 43]\nclass = y", fillcolor="#ea9b62"] ;
75 -> 76 ;
77 [label="gini = 0.222\nsamples = 157\nvalue = [137, 20]\nclass = y", fillcolor="#e99356"] ;
76 -> 77 ;
78 [label="gini = 0.364\nsamples = 96\nvalue = [73, 23]\nclass = y", fillcolor="#eda977"] ;
76 -> 78 ;
79 [label="campaign <= -0.38\ngini = 0.407\nsamples = 123\nvalue = [88, 35]\nclass = y", fillcolor="#efb388"] ;
75 -> 79 ;
80 [label="gini = 0.358\nsamples = 77\nvalue = [59, 18]\nclass = y", fillcolor="#eda775"] ;
79 -> 80 ;
81 [label="gini = 0.466\nsamples = 46\nvalue = [29, 17]\nclass = y", fillcolor="#f4cbad"] ;
79 -> 81 ;
82 [label="marital <= -1.098\ngini = 0.179\nsamples = 161\nvalue = [145, 16]\nclass = y", fillcolor="#e88f4f"] ;
66 -> 82 ;
83 [label="euribor3m <= -1.622\ngini = 0.457\nsamples = 17\nvalue = [11, 6]\nclass = y", fillcolor="#f3c6a5"] ;
82 -> 83 ;
84 [label="gini = 0.0\nsamples = 3\nvalue = [0, 3]\nclass = n", fillcolor="#399de5"] ;
83 -> 84 ;
85 [label="day_of_week <= 0.359\ngini = 0.337\nsamples = 14\nvalue = [11, 3]\nclass = y", fillcolor="#eca36f"] ;
83 -> 85 ;
86 [label="gini = 0.165\nsamples = 11\nvalue = [10, 1]\nclass = y", fillcolor="#e88e4d"] ;
85 -> 86 ;
87 [label="gini = 0.444\nsamples = 3\nvalue = [1, 2]\nclass = n", fillcolor="#9ccef2"] ;
85 -> 87 ;
88 [label="previous <= 6.743\ngini = 0.129\nsamples = 144\nvalue = [134, 10]\nclass = y", fillcolor="#e78a48"] ;
82 -> 88 ;
89 [label="campaign <= -0.023\ngini = 0.119\nsamples = 142\nvalue = [133, 9]\nclass = y", fillcolor="#e78a46"] ;
88 -> 89 ;
90 [label="gini = 0.153\nsamples = 108\nvalue = [99, 9]\nclass = y", fillcolor="#e78c4b"] ;
89 -> 90 ;
91 [label="gini = 0.0\nsamples = 34\nvalue = [34, 0]\nclass = y", fillcolor="#e58139"] ;
89 -> 91 ;
92 [label="nr.employed <= -2.498\ngini = 0.5\nsamples = 2\nvalue = [1, 1]\nclass = y", fillcolor="#ffffff"] ;
88 -> 92 ;
93 [label="gini = 0.0\nsamples = 1\nvalue = [0, 1]\nclass = n", fillcolor="#399de5"] ;
92 -> 93 ;
94 [label="gini = 0.0\nsamples = 1\nvalue = [1, 0]\nclass = y", fillcolor="#e58139"] ;
92 -> 94 ;
95 [label="poutcome <= 1.569\ngini = 0.474\nsamples = 2045\nvalue = [790, 1255]\nclass = n", fillcolor="#b6dbf5"] ;
1 -> 95 ;
96 [label="cons.price.idx <= -0.025\ngini = 0.498\nsamples = 1484\nvalue = [699, 785]\nclass = n", fillcolor="#e9f4fc"] ;
95 -> 96 ;
97 [label="education <= 0.118\ngini = 0.5\nsamples = 968\nvalue = [487, 481]\nclass = y", fillcolor="#fffdfd"] ;
96 -> 97 ;
98 [label="previous <= 2.688\ngini = 0.495\nsamples = 359\nvalue = [162, 197]\nclass = n", fillcolor="#dceefa"] ;
97 -> 98 ;
99 [label="contact <= 0.284\ngini = 0.492\nsamples = 335\nvalue = [146, 189]\nclass = n", fillcolor="#d2e9f9"] ;
98 -> 99 ;
100 [label="euribor3m <= -1.669\ngini = 0.484\nsamples = 292\nvalue = [120, 172]\nclass = n", fillcolor="#c3e1f7"] ;
99 -> 100 ;
101 [label="gini = 0.43\nsamples = 64\nvalue = [20, 44]\nclass = n", fillcolor="#93caf1"] ;
100 -> 101 ;
102 [label="gini = 0.492\nsamples = 228\nvalue = [100, 128]\nclass = n", fillcolor="#d4eaf9"] ;
100 -> 102 ;
103 [label="euribor3m <= -1.601\ngini = 0.478\nsamples = 43\nvalue = [26, 17]\nclass = y", fillcolor="#f6d3ba"] ;
99 -> 103 ;
104 [label="gini = 0.499\nsamples = 29\nvalue = [14, 15]\nclass = n", fillcolor="#f2f8fd"] ;
103 -> 104 ;
105 [label="gini = 0.245\nsamples = 14\nvalue = [12, 2]\nclass = y", fillcolor="#e9965a"] ;
103 -> 105 ;
106 [label="euribor3m <= -1.58\ngini = 0.444\nsamples = 24\nvalue = [16, 8]\nclass = y", fillcolor="#f2c09c"] ;
98 -> 106 ;
107 [label="day_of_week <= 1.075\ngini = 0.332\nsamples = 19\nvalue = [15, 4]\nclass = y", fillcolor="#eca36e"] ;
106 -> 107 ;
108 [label="gini = 0.133\nsamples = 14\nvalue = [13, 1]\nclass = y", fillcolor="#e78b48"] ;
107 -> 108 ;
109 [label="gini = 0.48\nsamples = 5\nvalue = [2, 3]\nclass = n", fillcolor="#bddef6"] ;
107 -> 109 ;
110 [label="housing <= -0.584\ngini = 0.32\nsamples = 5\nvalue = [1, 4]\nclass = n", fillcolor="#6ab6ec"] ;
106 -> 110 ;
111 [label="gini = 0.0\nsamples = 1\nvalue = [1, 0]\nclass = y", fillcolor="#e58139"] ;
110 -> 111 ;
112 [label="gini = 0.0\nsamples = 4\nvalue = [0, 4]\nclass = n", fillcolor="#399de5"] ;
110 -> 112 ;
113 [label="euribor3m <= -1.671\ngini = 0.498\nsamples = 609\nvalue = [325, 284]\nclass = y", fillcolor="#fcefe6"] ;
97 -> 113 ;
114 [label="euribor3m <= -1.708\ngini = 0.491\nsamples = 122\nvalue = [53, 69]\nclass = n", fillcolor="#d1e8f9"] ;
113 -> 114 ;
115 [label="campaign <= -0.38\ngini = 0.492\nsamples = 39\nvalue = [22, 17]\nclass = y", fillcolor="#f9e2d2"] ;
114 -> 115 ;
116 [label="gini = 0.457\nsamples = 17\nvalue = [6, 11]\nclass = n", fillcolor="#a5d2f3"] ;
115 -> 116 ;
117 [label="gini = 0.397\nsamples = 22\nvalue = [16, 6]\nclass = y", fillcolor="#efb083"] ;
115 -> 117 ;
118 [label="campaign <= 0.334\ngini = 0.468\nsamples = 83\nvalue = [31, 52]\nclass = n", fillcolor="#afd7f4"] ;
114 -> 118 ;
119 [label="gini = 0.447\nsamples = 74\nvalue = [25, 49]\nclass = n", fillcolor="#9ecff2"] ;
118 -> 119 ;
120 [label="gini = 0.444\nsamples = 9\nvalue = [6, 3]\nclass = y", fillcolor="#f2c09c"] ;
118 -> 120 ;
121 [label="campaign <= 0.334\ngini = 0.493\nsamples = 487\nvalue = [272, 215]\nclass = y", fillcolor="#fae5d6"] ;
113 -> 121 ;
122 [label="pdays <= -5.099\ngini = 0.489\nsamples = 455\nvalue = [262, 193]\nclass = y", fillcolor="#f8decb"] ;
121 -> 122 ;
123 [label="gini = 0.0\nsamples = 4\nvalue = [0, 4]\nclass = n", fillcolor="#399de5"] ;
122 -> 123 ;
124 [label="gini = 0.487\nsamples = 451\nvalue = [262, 189]\nclass = y", fillcolor="#f8dcc8"] ;
122 -> 124 ;
125 [label="age <= 0.339\ngini = 0.43\nsamples = 32\nvalue = [10, 22]\nclass = n", fillcolor="#93caf1"] ;
121 -> 125 ;
126 [label="gini = 0.266\nsamples = 19\nvalue = [3, 16]\nclass = n", fillcolor="#5eafea"] ;
125 -> 126 ;
127 [label="gini = 0.497\nsamples = 13\nvalue = [7, 6]\nclass = y", fillcolor="#fbede3"] ;
125 -> 127 ;
128 [label="previous <= 0.661\ngini = 0.484\nsamples = 516\nvalue = [212, 304]\nclass = n", fillcolor="#c3e1f7"] ;
96 -> 128 ;
129 [label="campaign <= 1.405\ngini = 0.452\nsamples = 298\nvalue = [103, 195]\nclass = n", fillcolor="#a2d1f3"] ;
128 -> 129 ;
130 [label="housing <= 0.432\ngini = 0.447\nsamples = 294\nvalue = [99, 195]\nclass = n", fillcolor="#9ecff2"] ;
129 -> 130 ;
131 [label="euribor3m <= -1.48\ngini = 0.402\nsamples = 140\nvalue = [39, 101]\nclass = n", fillcolor="#85c3ef"] ;
130 -> 131 ;
132 [label="gini = 0.392\nsamples = 138\nvalue = [37, 101]\nclass = n", fillcolor="#82c1ef"] ;
131 -> 132 ;
133 [label="gini = 0.0\nsamples = 2\nvalue = [2, 0]\nclass = y", fillcolor="#e58139"] ;
131 -> 133 ;
134 [label="euribor3m <= -1.664\ngini = 0.476\nsamples = 154\nvalue = [60, 94]\nclass = n", fillcolor="#b7dcf6"] ;
130 -> 134 ;
135 [label="gini = 0.403\nsamples = 50\nvalue = [14, 36]\nclass = n", fillcolor="#86c3ef"] ;
134 -> 135 ;
136 [label="gini = 0.493\nsamples = 104\nvalue = [46, 58]\nclass = n", fillcolor="#d6ebfa"] ;
134 -> 136 ;
137 [label="gini = 0.0\nsamples = 4\nvalue = [4, 0]\nclass = y", fillcolor="#e58139"] ;
129 -> 137 ;
138 [label="pdays <= -5.101\ngini = 0.5\nsamples = 218\nvalue = [109, 109]\nclass = y", fillcolor="#ffffff"] ;
128 -> 138 ;
139 [label="euribor3m <= -1.564\ngini = 0.302\nsamples = 27\nvalue = [5, 22]\nclass = n", fillcolor="#66b3eb"] ;
138 -> 139 ;
140 [label="euribor3m <= -1.693\ngini = 0.172\nsamples = 21\nvalue = [2, 19]\nclass = n", fillcolor="#4ea7e8"] ;
139 -> 140 ;
141 [label="gini = 0.0\nsamples = 1\nvalue = [1, 0]\nclass = y", fillcolor="#e58139"] ;
140 -> 141 ;
142 [label="gini = 0.095\nsamples = 20\nvalue = [1, 19]\nclass = n", fillcolor="#43a2e6"] ;
140 -> 142 ;
143 [label="loan <= 1.607\ngini = 0.5\nsamples = 6\nvalue = [3, 3]\nclass = y", fillcolor="#ffffff"] ;
139 -> 143 ;
144 [label="gini = 0.0\nsamples = 3\nvalue = [3, 0]\nclass = y", fillcolor="#e58139"] ;
143 -> 144 ;
145 [label="gini = 0.0\nsamples = 3\nvalue = [0, 3]\nclass = n", fillcolor="#399de5"] ;
143 -> 145 ;
146 [label="euribor3m <= -1.48\ngini = 0.496\nsamples = 191\nvalue = [104, 87]\nclass = y", fillcolor="#fbeadf"] ;
138 -> 146 ;
147 [label="day_of_week <= 0.359\ngini = 0.499\nsamples = 184\nvalue = [97, 87]\nclass = y", fillcolor="#fcf2eb"] ;
146 -> 147 ;
148 [label="gini = 0.481\nsamples = 109\nvalue = [65, 44]\nclass = y", fillcolor="#f7d6bf"] ;
147 -> 148 ;
149 [label="gini = 0.489\nsamples = 75\nvalue = [32, 43]\nclass = n", fillcolor="#cce6f8"] ;
147 -> 149 ;
150 [label="gini = 0.0\nsamples = 7\nvalue = [7, 0]\nclass = y", fillcolor="#e58139"] ;
146 -> 150 ;
151 [label="previous <= 2.688\ngini = 0.272\nsamples = 561\nvalue = [91, 470]\nclass = n", fillcolor="#5fb0ea"] ;
95 -> 151 ;
152 [label="job <= 1.884\ngini = 0.319\nsamples = 316\nvalue = [63, 253]\nclass = n", fillcolor="#6ab5eb"] ;
151 -> 152 ;
153 [label="euribor3m <= -1.709\ngini = 0.311\nsamples = 312\nvalue = [60, 252]\nclass = n", fillcolor="#68b4eb"] ;
152 -> 153 ;
154 [label="pdays <= -5.131\ngini = 0.466\nsamples = 27\nvalue = [10, 17]\nclass = n", fillcolor="#add7f4"] ;
153 -> 154 ;
155 [label="euribor3m <= -1.709\ngini = 0.32\nsamples = 15\nvalue = [3, 12]\nclass = n", fillcolor="#6ab6ec"] ;
154 -> 155 ;
156 [label="gini = 0.245\nsamples = 14\nvalue = [2, 12]\nclass = n", fillcolor="#5aade9"] ;
155 -> 156 ;
157 [label="gini = 0.0\nsamples = 1\nvalue = [1, 0]\nclass = y", fillcolor="#e58139"] ;
155 -> 157 ;
158 [label="euribor3m <= -1.716\ngini = 0.486\nsamples = 12\nvalue = [7, 5]\nclass = y", fillcolor="#f8dbc6"] ;
154 -> 158 ;
159 [label="gini = 0.0\nsamples = 2\nvalue = [0, 2]\nclass = n", fillcolor="#399de5"] ;
158 -> 159 ;
160 [label="gini = 0.42\nsamples = 10\nvalue = [7, 3]\nclass = y", fillcolor="#f0b78e"] ;
158 -> 160 ;
161 [label="euribor3m <= -1.681\ngini = 0.289\nsamples = 285\nvalue = [50, 235]\nclass = n", fillcolor="#63b2eb"] ;
153 -> 161 ;
162 [label="gini = 0.0\nsamples = 30\nvalue = [0, 30]\nclass = n", fillcolor="#399de5"] ;
161 -> 162 ;
163 [label="euribor3m <= -1.357\ngini = 0.315\nsamples = 255\nvalue = [50, 205]\nclass = n", fillcolor="#69b5eb"] ;
161 -> 163 ;
164 [label="gini = 0.299\nsamples = 240\nvalue = [44, 196]\nclass = n", fillcolor="#65b3eb"] ;
163 -> 164 ;
165 [label="gini = 0.48\nsamples = 15\nvalue = [6, 9]\nclass = n", fillcolor="#bddef6"] ;
163 -> 165 ;
166 [label="day_of_week <= 0.717\ngini = 0.375\nsamples = 4\nvalue = [3, 1]\nclass = y", fillcolor="#eeab7b"] ;
152 -> 166 ;
167 [label="gini = 0.0\nsamples = 3\nvalue = [3, 0]\nclass = y", fillcolor="#e58139"] ;
166 -> 167 ;
168 [label="gini = 0.0\nsamples = 1\nvalue = [0, 1]\nclass = n", fillcolor="#399de5"] ;
166 -> 168 ;
169 [label="euribor3m <= -1.569\ngini = 0.202\nsamples = 245\nvalue = [28, 217]\nclass = n", fillcolor="#53aae8"] ;
151 -> 169 ;
170 [label="pdays <= -5.166\ngini = 0.234\nsamples = 177\nvalue = [24, 153]\nclass = n", fillcolor="#58ace9"] ;
169 -> 170 ;
171 [label="gini = 0.0\nsamples = 1\nvalue = [1, 0]\nclass = y", fillcolor="#e58139"] ;
170 -> 171 ;
172 [label="month <= 0.112\ngini = 0.227\nsamples = 176\nvalue = [23, 153]\nclass = n", fillcolor="#57ace9"] ;
170 -> 172 ;
173 [label="pdays <= -5.15\ngini = 0.304\nsamples = 75\nvalue = [14, 61]\nclass = n", fillcolor="#66b3eb"] ;
172 -> 173 ;
174 [label="gini = 0.428\nsamples = 29\nvalue = [9, 20]\nclass = n", fillcolor="#92c9f1"] ;
173 -> 174 ;
175 [label="gini = 0.194\nsamples = 46\nvalue = [5, 41]\nclass = n", fillcolor="#51a9e8"] ;
173 -> 175 ;
176 [label="housing <= 0.432\ngini = 0.162\nsamples = 101\nvalue = [9, 92]\nclass = n", fillcolor="#4ca7e8"] ;
172 -> 176 ;
177 [label="gini = 0.071\nsamples = 54\nvalue = [2, 52]\nclass = n", fillcolor="#41a1e6"] ;
176 -> 177 ;
178 [label="gini = 0.254\nsamples = 47\nvalue = [7, 40]\nclass = n", fillcolor="#5caeea"] ;
176 -> 178 ;
179 [label="month <= 1.405\ngini = 0.111\nsamples = 68\nvalue = [4, 64]\nclass = n", fillcolor="#45a3e7"] ;
169 -> 179 ;
180 [label="gini = 0.0\nsamples = 47\nvalue = [0, 47]\nclass = n", fillcolor="#399de5"] ;
179 -> 180 ;
181 [label="day_of_week <= 0.359\ngini = 0.308\nsamples = 21\nvalue = [4, 17]\nclass = n", fillcolor="#68b4eb"] ;
179 -> 181 ;
182 [label="age <= 0.339\ngini = 0.444\nsamples = 12\nvalue = [4, 8]\nclass = n", fillcolor="#9ccef2"] ;
181 -> 182 ;
183 [label="gini = 0.245\nsamples = 7\nvalue = [1, 6]\nclass = n", fillcolor="#5aade9"] ;
182 -> 183 ;
184 [label="gini = 0.48\nsamples = 5\nvalue = [3, 2]\nclass = y", fillcolor="#f6d5bd"] ;
182 -> 184 ;
185 [label="gini = 0.0\nsamples = 9\nvalue = [0, 9]\nclass = n", fillcolor="#399de5"] ;
181 -> 185 ;
186 [label="duration <= 0.305\ngini = 0.124\nsamples = 25340\nvalue = [23653, 1687]\nclass = y", fillcolor="#e78a47"] ;
0 -> 186 [labeldistance=2.5, labelangle=-45, headlabel="False"] ;
187 [label="cons.conf.idx <= -1.325\ngini = 0.019\nsamples = 13051\nvalue = [12926, 125]\nclass = y", fillcolor="#e5823b"] ;
186 -> 187 ;
188 [label="day_of_week <= 0.359\ngini = 0.195\nsamples = 847\nvalue = [754, 93]\nclass = y", fillcolor="#e89151"] ;
187 -> 188 ;
189 [label="euribor3m <= -1.136\ngini = 0.123\nsamples = 654\nvalue = [611, 43]\nclass = y", fillcolor="#e78a47"] ;
188 -> 189 ;
190 [label="education <= 0.819\ngini = 0.101\nsamples = 617\nvalue = [584, 33]\nclass = y", fillcolor="#e68844"] ;
189 -> 190 ;
191 [label="age <= -0.847\ngini = 0.043\nsamples = 407\nvalue = [398, 9]\nclass = y", fillcolor="#e6843d"] ;
190 -> 191 ;
192 [label="job <= 1.606\ngini = 0.107\nsamples = 88\nvalue = [83, 5]\nclass = y", fillcolor="#e78945"] ;
191 -> 192 ;
193 [label="gini = 0.089\nsamples = 86\nvalue = [82, 4]\nclass = y", fillcolor="#e68743"] ;
192 -> 193 ;
194 [label="gini = 0.5\nsamples = 2\nvalue = [1, 1]\nclass = y", fillcolor="#ffffff"] ;
192 -> 194 ;
195 [label="euribor3m <= -1.219\ngini = 0.025\nsamples = 319\nvalue = [315, 4]\nclass = y", fillcolor="#e5833c"] ;
191 -> 195 ;
196 [label="gini = 0.019\nsamples = 310\nvalue = [307, 3]\nclass = y", fillcolor="#e5823b"] ;
195 -> 196 ;
197 [label="gini = 0.198\nsamples = 9\nvalue = [8, 1]\nclass = y", fillcolor="#e89152"] ;
195 -> 197 ;
198 [label="duration <= -0.903\ngini = 0.202\nsamples = 210\nvalue = [186, 24]\nclass = y", fillcolor="#e89153"] ;
190 -> 198 ;
199 [label="job <= 1.606\ngini = 0.037\nsamples = 105\nvalue = [103, 2]\nclass = y", fillcolor="#e6833d"] ;
198 -> 199 ;
200 [label="gini = 0.019\nsamples = 103\nvalue = [102, 1]\nclass = y", fillcolor="#e5823b"] ;
199 -> 200 ;
201 [label="gini = 0.5\nsamples = 2\nvalue = [1, 1]\nclass = y", fillcolor="#ffffff"] ;
199 -> 201 ;
202 [label="job <= -0.894\ngini = 0.331\nsamples = 105\nvalue = [83, 22]\nclass = y", fillcolor="#eca26d"] ;
198 -> 202 ;
203 [label="gini = 0.43\nsamples = 32\nvalue = [22, 10]\nclass = y", fillcolor="#f1ba93"] ;
202 -> 203 ;
204 [label="gini = 0.275\nsamples = 73\nvalue = [61, 12]\nclass = y", fillcolor="#ea9a60"] ;
202 -> 204 ;
205 [label="duration <= -0.903\ngini = 0.394\nsamples = 37\nvalue = [27, 10]\nclass = y", fillcolor="#efb082"] ;
189 -> 205 ;
206 [label="job <= 0.773\ngini = 0.18\nsamples = 20\nvalue = [18, 2]\nclass = y", fillcolor="#e88f4f"] ;
205 -> 206 ;
207 [label="gini = 0.0\nsamples = 13\nvalue = [13, 0]\nclass = y", fillcolor="#e58139"] ;
206 -> 207 ;
208 [label="euribor3m <= -1.118\ngini = 0.408\nsamples = 7\nvalue = [5, 2]\nclass = y", fillcolor="#efb388"] ;
206 -> 208 ;
209 [label="gini = 0.0\nsamples = 1\nvalue = [0, 1]\nclass = n", fillcolor="#399de5"] ;
208 -> 209 ;
210 [label="gini = 0.278\nsamples = 6\nvalue = [5, 1]\nclass = y", fillcolor="#ea9a61"] ;
208 -> 210 ;
211 [label="campaign <= 0.334\ngini = 0.498\nsamples = 17\nvalue = [9, 8]\nclass = y", fillcolor="#fcf1e9"] ;
205 -> 211 ;
212 [label="marital <= 0.543\ngini = 0.463\nsamples = 11\nvalue = [4, 7]\nclass = n", fillcolor="#aad5f4"] ;
211 -> 212 ;
213 [label="gini = 0.278\nsamples = 6\nvalue = [1, 5]\nclass = n", fillcolor="#61b1ea"] ;
212 -> 213 ;
214 [label="gini = 0.48\nsamples = 5\nvalue = [3, 2]\nclass = y", fillcolor="#f6d5bd"] ;
212 -> 214 ;
215 [label="age <= -0.847\ngini = 0.278\nsamples = 6\nvalue = [5, 1]\nclass = y", fillcolor="#ea9a61"] ;
211 -> 215 ;
216 [label="gini = 0.444\nsamples = 3\nvalue = [2, 1]\nclass = y", fillcolor="#f2c09c"] ;
215 -> 216 ;
217 [label="gini = 0.0\nsamples = 3\nvalue = [3, 0]\nclass = y", fillcolor="#e58139"] ;
215 -> 217 ;
218 [label="duration <= -0.903\ngini = 0.384\nsamples = 193\nvalue = [143, 50]\nclass = y", fillcolor="#eead7e"] ;
188 -> 218 ;
219 [label="euribor3m <= -1.14\ngini = 0.198\nsamples = 81\nvalue = [72, 9]\nclass = y", fillcolor="#e89152"] ;
218 -> 219 ;
220 [label="campaign <= -0.38\ngini = 0.084\nsamples = 68\nvalue = [65, 3]\nclass = y", fillcolor="#e68742"] ;
219 -> 220 ;
221 [label="housing <= -0.584\ngini = 0.142\nsamples = 39\nvalue = [36, 3]\nclass = y", fillcolor="#e78c49"] ;
220 -> 221 ;
222 [label="gini = 0.278\nsamples = 12\nvalue = [10, 2]\nclass = y", fillcolor="#ea9a61"] ;
221 -> 222 ;
223 [label="gini = 0.071\nsamples = 27\nvalue = [26, 1]\nclass = y", fillcolor="#e68641"] ;
221 -> 223 ;
224 [label="gini = 0.0\nsamples = 29\nvalue = [29, 0]\nclass = y", fillcolor="#e58139"] ;
220 -> 224 ;
225 [label="housing <= -0.076\ngini = 0.497\nsamples = 13\nvalue = [7, 6]\nclass = y", fillcolor="#fbede3"] ;
219 -> 225 ;
226 [label="gini = 0.0\nsamples = 3\nvalue = [3, 0]\nclass = y", fillcolor="#e58139"] ;
225 -> 226 ;
227 [label="education <= -1.286\ngini = 0.48\nsamples = 10\nvalue = [4, 6]\nclass = n", fillcolor="#bddef6"] ;
225 -> 227 ;
228 [label="gini = 0.48\nsamples = 5\nvalue = [3, 2]\nclass = y", fillcolor="#f6d5bd"] ;
227 -> 228 ;
229 [label="gini = 0.32\nsamples = 5\nvalue = [1, 4]\nclass = n", fillcolor="#6ab6ec"] ;
227 -> 229 ;
230 [label="poutcome <= -1.177\ngini = 0.464\nsamples = 112\nvalue = [71, 41]\nclass = y", fillcolor="#f4caab"] ;
218 -> 230 ;
231 [label="education <= 1.287\ngini = 0.255\nsamples = 20\nvalue = [17, 3]\nclass = y", fillcolor="#ea975c"] ;
230 -> 231 ;
232 [label="education <= -1.52\ngini = 0.188\nsamples = 19\nvalue = [17, 2]\nclass = y", fillcolor="#e89050"] ;
231 -> 232 ;
233 [label="gini = 0.5\nsamples = 4\nvalue = [2, 2]\nclass = y", fillcolor="#ffffff"] ;
232 -> 233 ;
234 [label="gini = 0.0\nsamples = 15\nvalue = [15, 0]\nclass = y", fillcolor="#e58139"] ;
232 -> 234 ;
235 [label="gini = 0.0\nsamples = 1\nvalue = [0, 1]\nclass = n", fillcolor="#399de5"] ;
231 -> 235 ;
236 [label="campaign <= 0.691\ngini = 0.485\nsamples = 92\nvalue = [54, 38]\nclass = y", fillcolor="#f7dac4"] ;
230 -> 236 ;
237 [label="loan <= 1.607\ngini = 0.494\nsamples = 85\nvalue = [47, 38]\nclass = y", fillcolor="#fae7d9"] ;
236 -> 237 ;
238 [label="gini = 0.5\nsamples = 73\nvalue = [37, 36]\nclass = y", fillcolor="#fefcfa"] ;
237 -> 238 ;
239 [label="gini = 0.278\nsamples = 12\nvalue = [10, 2]\nclass = y", fillcolor="#ea9a61"] ;
237 -> 239 ;
240 [label="gini = 0.0\nsamples = 7\nvalue = [7, 0]\nclass = y", fillcolor="#e58139"] ;
236 -> 240 ;
241 [label="month <= 1.405\ngini = 0.005\nsamples = 12204\nvalue = [12172, 32]\nclass = y", fillcolor="#e5813a"] ;
187 -> 241 ;
242 [label="pdays <= -5.155\ngini = 0.003\nsamples = 12181\nvalue = [12160, 21]\nclass = y", fillcolor="#e58139"] ;
241 -> 242 ;
243 [label="job <= 0.078\ngini = 0.305\nsamples = 16\nvalue = [13, 3]\nclass = y", fillcolor="#eb9e67"] ;
242 -> 243 ;
244 [label="gini = 0.0\nsamples = 9\nvalue = [9, 0]\nclass = y", fillcolor="#e58139"] ;
243 -> 244 ;
245 [label="duration <= -0.903\ngini = 0.49\nsamples = 7\nvalue = [4, 3]\nclass = y", fillcolor="#f8e0ce"] ;
243 -> 245 ;
246 [label="gini = 0.0\nsamples = 3\nvalue = [3, 0]\nclass = y", fillcolor="#e58139"] ;
245 -> 246 ;
247 [label="pdays <= -5.166\ngini = 0.375\nsamples = 4\nvalue = [1, 3]\nclass = n", fillcolor="#7bbeee"] ;
245 -> 247 ;
248 [label="gini = 0.0\nsamples = 1\nvalue = [1, 0]\nclass = y", fillcolor="#e58139"] ;
247 -> 248 ;
249 [label="gini = 0.0\nsamples = 3\nvalue = [0, 3]\nclass = n", fillcolor="#399de5"] ;
247 -> 249 ;
250 [label="euribor3m <= 0.582\ngini = 0.003\nsamples = 12165\nvalue = [12147, 18]\nclass = y", fillcolor="#e58139"] ;
242 -> 250 ;
251 [label="euribor3m <= 0.34\ngini = 0.01\nsamples = 3455\nvalue = [3437, 18]\nclass = y", fillcolor="#e5823a"] ;
250 -> 251 ;
252 [label="euribor3m <= -1.349\ngini = 0.005\nsamples = 3430\nvalue = [3422, 8]\nclass = y", fillcolor="#e58139"] ;
251 -> 252 ;
253 [label="gini = 0.017\nsamples = 802\nvalue = [795, 7]\nclass = y", fillcolor="#e5823b"] ;
252 -> 253 ;
254 [label="gini = 0.001\nsamples = 2628\nvalue = [2627, 1]\nclass = y", fillcolor="#e58139"] ;
252 -> 254 ;
255 [label="euribor3m <= 0.356\ngini = 0.48\nsamples = 25\nvalue = [15, 10]\nclass = y", fillcolor="#f6d5bd"] ;
251 -> 255 ;
256 [label="gini = 0.0\nsamples = 3\nvalue = [0, 3]\nclass = n", fillcolor="#399de5"] ;
255 -> 256 ;
257 [label="gini = 0.434\nsamples = 22\nvalue = [15, 7]\nclass = y", fillcolor="#f1bc95"] ;
255 -> 257 ;
258 [label="gini = 0.0\nsamples = 8710\nvalue = [8710, 0]\nclass = y", fillcolor="#e58139"] ;
250 -> 258 ;
259 [label="duration <= -0.903\ngini = 0.499\nsamples = 23\nvalue = [12, 11]\nclass = y", fillcolor="#fdf5ef"] ;
241 -> 259 ;
260 [label="euribor3m <= 0.769\ngini = 0.298\nsamples = 11\nvalue = [9, 2]\nclass = y", fillcolor="#eb9d65"] ;
259 -> 260 ;
261 [label="gini = 0.0\nsamples = 5\nvalue = [5, 0]\nclass = y", fillcolor="#e58139"] ;
260 -> 261 ;
262 [label="marital <= 0.543\ngini = 0.444\nsamples = 6\nvalue = [4, 2]\nclass = y", fillcolor="#f2c09c"] ;
260 -> 262 ;
263 [label="loan <= 0.231\ngini = 0.5\nsamples = 4\nvalue = [2, 2]\nclass = y", fillcolor="#ffffff"] ;
262 -> 263 ;
264 [label="gini = 0.444\nsamples = 3\nvalue = [1, 2]\nclass = n", fillcolor="#9ccef2"] ;
263 -> 264 ;
265 [label="gini = 0.0\nsamples = 1\nvalue = [1, 0]\nclass = y", fillcolor="#e58139"] ;
263 -> 265 ;
266 [label="gini = 0.0\nsamples = 2\nvalue = [2, 0]\nclass = y", fillcolor="#e58139"] ;
262 -> 266 ;
267 [label="euribor3m <= 0.779\ngini = 0.375\nsamples = 12\nvalue = [3, 9]\nclass = n", fillcolor="#7bbeee"] ;
259 -> 267 ;
268 [label="day_of_week <= 1.075\ngini = 0.198\nsamples = 9\nvalue = [1, 8]\nclass = n", fillcolor="#52a9e8"] ;
267 -> 268 ;
269 [label="gini = 0.0\nsamples = 6\nvalue = [0, 6]\nclass = n", fillcolor="#399de5"] ;
268 -> 269 ;
270 [label="education <= 0.819\ngini = 0.444\nsamples = 3\nvalue = [1, 2]\nclass = n", fillcolor="#9ccef2"] ;
268 -> 270 ;
271 [label="gini = 0.0\nsamples = 2\nvalue = [0, 2]\nclass = n", fillcolor="#399de5"] ;
270 -> 271 ;
272 [label="gini = 0.0\nsamples = 1\nvalue = [1, 0]\nclass = y", fillcolor="#e58139"] ;
270 -> 272 ;
273 [label="loan <= 0.919\ngini = 0.444\nsamples = 3\nvalue = [2, 1]\nclass = y", fillcolor="#f2c09c"] ;
267 -> 273 ;
274 [label="gini = 0.0\nsamples = 1\nvalue = [1, 0]\nclass = y", fillcolor="#e58139"] ;
273 -> 274 ;
275 [label="day_of_week <= -1.071\ngini = 0.5\nsamples = 2\nvalue = [1, 1]\nclass = y", fillcolor="#ffffff"] ;
273 -> 275 ;
276 [label="gini = 0.0\nsamples = 1\nvalue = [0, 1]\nclass = n", fillcolor="#399de5"] ;
275 -> 276 ;
277 [label="gini = 0.0\nsamples = 1\nvalue = [1, 0]\nclass = y", fillcolor="#e58139"] ;
275 -> 277 ;
278 [label="cons.conf.idx <= -1.735\ngini = 0.222\nsamples = 12289\nvalue = [10727, 1562]\nclass = y", fillcolor="#e99356"] ;
186 -> 278 ;
279 [label="default <= 0.72\ngini = 0.414\nsamples = 89\nvalue = [26, 63]\nclass = n", fillcolor="#8bc5f0"] ;
278 -> 279 ;
280 [label="euribor3m <= -1.136\ngini = 0.375\nsamples = 84\nvalue = [21, 63]\nclass = n", fillcolor="#7bbeee"] ;
279 -> 280 ;
281 [label="job <= 0.217\ngini = 0.458\nsamples = 45\nvalue = [16, 29]\nclass = n", fillcolor="#a6d3f3"] ;
280 -> 281 ;
282 [label="euribor3m <= -1.195\ngini = 0.346\nsamples = 27\nvalue = [6, 21]\nclass = n", fillcolor="#72b9ec"] ;
281 -> 282 ;
283 [label="loan <= 0.919\ngini = 0.457\nsamples = 17\nvalue = [6, 11]\nclass = n", fillcolor="#a5d2f3"] ;
282 -> 283 ;
284 [label="gini = 0.43\nsamples = 16\nvalue = [5, 11]\nclass = n", fillcolor="#93caf1"] ;
283 -> 284 ;
285 [label="gini = 0.0\nsamples = 1\nvalue = [1, 0]\nclass = y", fillcolor="#e58139"] ;
283 -> 285 ;
286 [label="gini = 0.0\nsamples = 10\nvalue = [0, 10]\nclass = n", fillcolor="#399de5"] ;
282 -> 286 ;
287 [label="age <= -0.847\ngini = 0.494\nsamples = 18\nvalue = [10, 8]\nclass = y", fillcolor="#fae6d7"] ;
281 -> 287 ;
288 [label="housing <= -0.076\ngini = 0.463\nsamples = 11\nvalue = [4, 7]\nclass = n", fillcolor="#aad5f4"] ;
287 -> 288 ;
289 [label="gini = 0.278\nsamples = 6\nvalue = [1, 5]\nclass = n", fillcolor="#61b1ea"] ;
288 -> 289 ;
290 [label="gini = 0.48\nsamples = 5\nvalue = [3, 2]\nclass = y", fillcolor="#f6d5bd"] ;
288 -> 290 ;
291 [label="job <= 1.606\ngini = 0.245\nsamples = 7\nvalue = [6, 1]\nclass = y", fillcolor="#e9965a"] ;
287 -> 291 ;
292 [label="gini = 0.0\nsamples = 5\nvalue = [5, 0]\nclass = y", fillcolor="#e58139"] ;
291 -> 292 ;
293 [label="gini = 0.5\nsamples = 2\nvalue = [1, 1]\nclass = y", fillcolor="#ffffff"] ;
291 -> 293 ;
294 [label="job <= 1.745\ngini = 0.224\nsamples = 39\nvalue = [5, 34]\nclass = n", fillcolor="#56abe9"] ;
280 -> 294 ;
295 [label="job <= 0.773\ngini = 0.188\nsamples = 38\nvalue = [4, 34]\nclass = n", fillcolor="#50a9e8"] ;
294 -> 295 ;
296 [label="loan <= 1.607\ngini = 0.36\nsamples = 17\nvalue = [4, 13]\nclass = n", fillcolor="#76bbed"] ;
295 -> 296 ;
297 [label="gini = 0.245\nsamples = 14\nvalue = [2, 12]\nclass = n", fillcolor="#5aade9"] ;
296 -> 297 ;
298 [label="gini = 0.444\nsamples = 3\nvalue = [2, 1]\nclass = y", fillcolor="#f2c09c"] ;
296 -> 298 ;
299 [label="gini = 0.0\nsamples = 21\nvalue = [0, 21]\nclass = n", fillcolor="#399de5"] ;
295 -> 299 ;
300 [label="gini = 0.0\nsamples = 1\nvalue = [1, 0]\nclass = y", fillcolor="#e58139"] ;
294 -> 300 ;
301 [label="gini = 0.0\nsamples = 5\nvalue = [5, 0]\nclass = y", fillcolor="#e58139"] ;
279 -> 301 ;
302 [label="euribor3m <= -1.249\ngini = 0.216\nsamples = 12200\nvalue = [10701, 1499]\nclass = y", fillcolor="#e99355"] ;
278 -> 302 ;
303 [label="pdays <= -5.117\ngini = 0.311\nsamples = 2895\nvalue = [2337, 558]\nclass = y", fillcolor="#eb9f68"] ;
302 -> 303 ;
304 [label="euribor3m <= -1.306\ngini = 0.495\nsamples = 82\nvalue = [37, 45]\nclass = n", fillcolor="#dceefa"] ;
303 -> 304 ;
305 [label="day_of_week <= 1.075\ngini = 0.483\nsamples = 44\nvalue = [26, 18]\nclass = y", fillcolor="#f7d8c2"] ;
304 -> 305 ;
306 [label="marital <= -1.098\ngini = 0.422\nsamples = 33\nvalue = [23, 10]\nclass = y", fillcolor="#f0b88f"] ;
305 -> 306 ;
307 [label="gini = 0.0\nsamples = 2\nvalue = [0, 2]\nclass = n", fillcolor="#399de5"] ;
306 -> 307 ;
308 [label="gini = 0.383\nsamples = 31\nvalue = [23, 8]\nclass = y", fillcolor="#eead7e"] ;
306 -> 308 ;
309 [label="euribor3m <= -1.349\ngini = 0.397\nsamples = 11\nvalue = [3, 8]\nclass = n", fillcolor="#83c2ef"] ;
305 -> 309 ;
310 [label="gini = 0.0\nsamples = 5\nvalue = [0, 5]\nclass = n", fillcolor="#399de5"] ;
309 -> 310 ;
311 [label="gini = 0.5\nsamples = 6\nvalue = [3, 3]\nclass = y", fillcolor="#ffffff"] ;
309 -> 311 ;
312 [label="euribor3m <= -1.273\ngini = 0.411\nsamples = 38\nvalue = [11, 27]\nclass = n", fillcolor="#8ac5f0"] ;
304 -> 312 ;
313 [label="pdays <= -5.136\ngini = 0.327\nsamples = 34\nvalue = [7, 27]\nclass = n", fillcolor="#6cb6ec"] ;
312 -> 313 ;
314 [label="gini = 0.271\nsamples = 31\nvalue = [5, 26]\nclass = n", fillcolor="#5fb0ea"] ;
313 -> 314 ;
315 [label="gini = 0.444\nsamples = 3\nvalue = [2, 1]\nclass = y", fillcolor="#f2c09c"] ;
313 -> 315 ;
316 [label="gini = 0.0\nsamples = 4\nvalue = [4, 0]\nclass = y", fillcolor="#e58139"] ;
312 -> 316 ;
317 [label="euribor3m <= -1.306\ngini = 0.298\nsamples = 2813\nvalue = [2300, 513]\nclass = y", fillcolor="#eb9d65"] ;
303 -> 317 ;
318 [label="euribor3m <= -1.349\ngini = 0.258\nsamples = 1921\nvalue = [1629, 292]\nclass = y", fillcolor="#ea985c"] ;
317 -> 318 ;
319 [label="campaign <= 1.048\ngini = 0.368\nsamples = 585\nvalue = [443, 142]\nclass = y", fillcolor="#eda978"] ;
318 -> 319 ;
320 [label="gini = 0.377\nsamples = 552\nvalue = [413, 139]\nclass = y", fillcolor="#eeab7c"] ;
319 -> 320 ;
321 [label="gini = 0.165\nsamples = 33\nvalue = [30, 3]\nclass = y", fillcolor="#e88e4d"] ;
319 -> 321 ;
322 [label="poutcome <= -1.177\ngini = 0.199\nsamples = 1336\nvalue = [1186, 150]\nclass = y", fillcolor="#e89152"] ;
318 -> 322 ;
323 [label="gini = 0.144\nsamples = 423\nvalue = [390, 33]\nclass = y", fillcolor="#e78c4a"] ;
322 -> 323 ;
324 [label="gini = 0.223\nsamples = 913\nvalue = [796, 117]\nclass = y", fillcolor="#e99456"] ;
322 -> 324 ;
325 [label="euribor3m <= -1.276\ngini = 0.373\nsamples = 892\nvalue = [671, 221]\nclass = y", fillcolor="#eeaa7a"] ;
317 -> 325 ;
326 [label="cons.conf.idx <= -1.325\ngini = 0.499\nsamples = 198\nvalue = [94, 104]\nclass = n", fillcolor="#ecf6fc"] ;
325 -> 326 ;
327 [label="gini = 0.483\nsamples = 125\nvalue = [51, 74]\nclass = n", fillcolor="#c1e1f7"] ;
326 -> 327 ;
328 [label="gini = 0.484\nsamples = 73\nvalue = [43, 30]\nclass = y", fillcolor="#f7d9c3"] ;
326 -> 328 ;
329 [label="day_of_week <= 0.359\ngini = 0.28\nsamples = 694\nvalue = [577, 117]\nclass = y", fillcolor="#ea9b61"] ;
325 -> 329 ;
330 [label="gini = 0.222\nsamples = 567\nvalue = [495, 72]\nclass = y", fillcolor="#e99356"] ;
329 -> 330 ;
331 [label="gini = 0.458\nsamples = 127\nvalue = [82, 45]\nclass = y", fillcolor="#f3c6a6"] ;
329 -> 331 ;
332 [label="month <= 1.405\ngini = 0.182\nsamples = 9305\nvalue = [8364, 941]\nclass = y", fillcolor="#e88f4f"] ;
302 -> 332 ;
333 [label="nr.employed <= 0.367\ngini = 0.18\nsamples = 9288\nvalue = [8362, 926]\nclass = y", fillcolor="#e88f4f"] ;
332 -> 333 ;
334 [label="euribor3m <= 0.717\ngini = 0.114\nsamples = 3108\nvalue = [2920, 188]\nclass = y", fillcolor="#e78946"] ;
333 -> 334 ;
335 [label="contact <= 0.284\ngini = 0.106\nsamples = 2968\nvalue = [2801, 167]\nclass = y", fillcolor="#e78945"] ;
334 -> 335 ;
336 [label="gini = 0.237\nsamples = 124\nvalue = [107, 17]\nclass = y", fillcolor="#e99558"] ;
335 -> 336 ;
337 [label="gini = 0.1\nsamples = 2844\nvalue = [2694, 150]\nclass = y", fillcolor="#e68844"] ;
335 -> 337 ;
338 [label="campaign <= 2.476\ngini = 0.255\nsamples = 140\nvalue = [119, 21]\nclass = y", fillcolor="#ea975c"] ;
334 -> 338 ;
339 [label="gini = 0.222\nsamples = 134\nvalue = [117, 17]\nclass = y", fillcolor="#e99356"] ;
338 -> 339 ;
340 [label="gini = 0.444\nsamples = 6\nvalue = [2, 4]\nclass = n", fillcolor="#9ccef2"] ;
338 -> 340 ;
341 [label="cons.conf.idx <= 0.335\ngini = 0.21\nsamples = 6180\nvalue = [5442, 738]\nclass = y", fillcolor="#e99254"] ;
333 -> 341 ;
342 [label="education <= -1.52\ngini = 0.199\nsamples = 4769\nvalue = [4234, 535]\nclass = y", fillcolor="#e89152"] ;
341 -> 342 ;
343 [label="gini = 0.136\nsamples = 462\nvalue = [428, 34]\nclass = y", fillcolor="#e78b49"] ;
342 -> 343 ;
344 [label="gini = 0.206\nsamples = 4307\nvalue = [3806, 501]\nclass = y", fillcolor="#e89253"] ;
342 -> 344 ;
345 [label="contact <= 0.284\ngini = 0.246\nsamples = 1411\nvalue = [1208, 203]\nclass = y", fillcolor="#e9965a"] ;
341 -> 345 ;
346 [label="gini = 0.239\nsamples = 1376\nvalue = [1185, 191]\nclass = y", fillcolor="#e99559"] ;
345 -> 346 ;
347 [label="gini = 0.451\nsamples = 35\nvalue = [23, 12]\nclass = y", fillcolor="#f3c3a0"] ;
345 -> 347 ;
348 [label="euribor3m <= 0.788\ngini = 0.208\nsamples = 17\nvalue = [2, 15]\nclass = n", fillcolor="#53aae8"] ;
332 -> 348 ;
349 [label="gini = 0.0\nsamples = 10\nvalue = [0, 10]\nclass = n", fillcolor="#399de5"] ;
348 -> 349 ;
350 [label="housing <= -0.076\ngini = 0.408\nsamples = 7\nvalue = [2, 5]\nclass = n", fillcolor="#88c4ef"] ;
348 -> 350 ;
351 [label="gini = 0.0\nsamples = 4\nvalue = [0, 4]\nclass = n", fillcolor="#399de5"] ;
350 -> 351 ;
352 [label="age <= -0.847\ngini = 0.444\nsamples = 3\nvalue = [2, 1]\nclass = y", fillcolor="#f2c09c"] ;
350 -> 352 ;
353 [label="gini = 0.0\nsamples = 1\nvalue = [0, 1]\nclass = n", fillcolor="#399de5"] ;
352 -> 353 ;
354 [label="gini = 0.0\nsamples = 2\nvalue = [2, 0]\nclass = y", fillcolor="#e58139"] ;
352 -> 354 ;
}